<?xml version="1.0"?>
<opencv_storage>
<cascade>
  <stageType>BOOST</stageType>
  <featureType>HAAR</featureType>
  <height>20</height>
  <width>20</width>
  <stageParams>
    <boostType>GAB</boostType>
    <minHitRate>9.9500000476837158e-01</minHitRate>
    <maxFalseAlarm>5.0000000000000000e-01</maxFalseAlarm>
    <weightTrimRate>9.4999999999999996e-01</weightTrimRate>
    <maxDepth>1</maxDepth>
    <maxWeakCount>100</maxWeakCount></stageParams>
  <featureParams>
    <maxCatCount>0</maxCatCount>
    <featSize>1</featSize>
    <mode>BASIC</mode></featureParams>
  <stageNum>10</stageNum>
  <stages>
    <!-- stage 0 -->
    <_>
      <maxWeakCount>2</maxWeakCount>
      <stageThreshold>-7.2648130357265472e-02</stageThreshold>
      <weakClassifiers>
        <_>
          <internalNodes>
            0 -1 38 -1.5848055481910706e-02</internalNodes>
          <leafValues>
            9.1220557689666748e-01 -6.2190812826156616e-01</leafValues></_>
        <_>
          <internalNodes>
            0 -1 18 9.6992097795009613e-02</internalNodes>
          <leafValues>
            5.4926002025604248e-01 -9.3535500764846802e-01</leafValues></_></weakClassifiers></_>
    <!-- stage 1 -->
    <_>
      <maxWeakCount>4</maxWeakCount>
      <stageThreshold>-1.1056196689605713e+00</stageThreshold>
      <weakClassifiers>
        <_>
          <internalNodes>
            0 -1 46 1.5837464481592178e-02</internalNodes>
          <leafValues>
            -6.7695099115371704e-01 8.3073496818542480e-01</leafValues></_>
        <_>
          <internalNodes>
            0 -1 24 2.9897399246692657e-02</internalNodes>
          <leafValues>
            -6.4010095596313477e-01 7.0820975303649902e-01</leafValues></_>
        <_>
          <internalNodes>
            0 -1 47 -1.8218118697404861e-02</internalNodes>
          <leafValues>
            7.5769495964050293e-01 -4.4536668062210083e-01</leafValues></_>
        <_>
          <internalNodes>
            0 -1 11 -7.8827226534485817e-03</internalNodes>
          <leafValues>
            6.5679901838302612e-01 -5.4104167222976685e-01</leafValues></_></weakClassifiers></_>
    <!-- stage 2 -->
    <_>
      <maxWeakCount>6</maxWeakCount>
      <stageThreshold>-8.8132041692733765e-01</stageThreshold>
      <weakClassifiers>
        <_>
          <internalNodes>
            0 -1 30 4.4559091329574585e-02</internalNodes>
          <leafValues>
            -6.1869156360626221e-01 7.1182793378829956e-01</leafValues></_>
        <_>
          <internalNodes>
            0 -1 54 1.3106759637594223e-02</internalNodes>
          <leafValues>
            -5.2714127302169800e-01 6.1290776729583740e-01</leafValues></_>
        <_>
          <internalNodes>
            0 -1 4 -1.1987159028649330e-02</internalNodes>
          <leafValues>
            6.9842123985290527e-01 -4.3530341982841492e-01</leafValues></_>
        <_>
          <internalNodes>
            0 -1 21 2.2499753162264824e-02</internalNodes>
          <leafValues>
            -2.9272025823593140e-01 8.1335347890853882e-01</leafValues></_>
        <_>
          <internalNodes>
            0 -1 61 4.3570892885327339e-03</internalNodes>
          <leafValues>
            -3.1249403953552246e-01 6.8070530891418457e-01</leafValues></_>
        <_>
          <internalNodes>
            0 -1 33 1.3708809018135071e-01</internalNodes>
          <leafValues>
            3.1183087825775146e-01 -7.3658406734466553e-01</leafValues></_></weakClassifiers></_>
    <!-- stage 3 -->
    <_>
      <maxWeakCount>7</maxWeakCount>
      <stageThreshold>-1.2521392107009888e+00</stageThreshold>
      <weakClassifiers>
        <_>
          <internalNodes>
            0 -1 48 2.8039954602718353e-02</internalNodes>
          <leafValues>
            -4.4323483109474182e-01 7.9831933975219727e-01</leafValues></_>
        <_>
          <internalNodes>
            0 -1 35 4.1724923998117447e-02</internalNodes>
          <leafValues>
            -5.2182680368423462e-01 5.6774562597274780e-01</leafValues></_>
        <_>
          <internalNodes>
            0 -1 22 8.8213402777910233e-03</internalNodes>
          <leafValues>
            -6.0523015260696411e-01 4.3036985397338867e-01</leafValues></_>
        <_>
          <internalNodes>
            0 -1 5 -1.5162236988544464e-01</internalNodes>
          <leafValues>
            -8.8752299547195435e-01 2.2803254425525665e-01</leafValues></_>
        <_>
          <internalNodes>
            0 -1 14 -3.9356206543743610e-03</internalNodes>
          <leafValues>
            4.4214493036270142e-01 -5.3526896238327026e-01</leafValues></_>
        <_>
          <internalNodes>
            0 -1 62 -6.3113467767834663e-03</internalNodes>
          <leafValues>
            7.3153042793273926e-01 -2.6419940590858459e-01</leafValues></_>
        <_>
          <internalNodes>
            0 -1 50 7.8475577756762505e-03</internalNodes>
          <leafValues>
            -1.4601157605648041e-01 8.5509347915649414e-01</leafValues></_></weakClassifiers></_>
    <!-- stage 4 -->
    <_>
      <maxWeakCount>8</maxWeakCount>
      <stageThreshold>-1.2085325717926025e+00</stageThreshold>
      <weakClassifiers>
        <_>
          <internalNodes>
            0 -1 44 1.8352517858147621e-02</internalNodes>
          <leafValues>
            -5.4890221357345581e-01 5.5110222101211548e-01</leafValues></_>
        <_>
          <internalNodes>
            0 -1 42 -5.9446059167385101e-03</internalNodes>
          <leafValues>
            4.5027908682823181e-01 -6.1502486467361450e-01</leafValues></_>
        <_>
          <internalNodes>
            0 -1 49 2.6290558278560638e-02</internalNodes>
          <leafValues>
            -3.1533104181289673e-01 7.5276952981948853e-01</leafValues></_>
        <_>
          <internalNodes>
            0 -1 14 -8.0793611705303192e-03</internalNodes>
          <leafValues>
            5.1202082633972168e-01 -4.3524235486984253e-01</leafValues></_>
        <_>
          <internalNodes>
            0 -1 56 -5.8572632260620594e-03</internalNodes>
          <leafValues>
            6.1827224493026733e-01 -2.7406284213066101e-01</leafValues></_>
        <_>
          <internalNodes>
            0 -1 41 -2.4995945394039154e-02</internalNodes>
          <leafValues>
            6.4692974090576172e-01 -2.3960632085800171e-01</leafValues></_>
        <_>
          <internalNodes>
            0 -1 27 -1.9228018820285797e-02</internalNodes>
          <leafValues>
            4.7408396005630493e-01 -3.4993076324462891e-01</leafValues></_>
        <_>
          <internalNodes>
            0 -1 23 8.0602653324604034e-03</internalNodes>
          <leafValues>
            -3.1975081562995911e-01 5.5729526281356812e-01</leafValues></_></weakClassifiers></_>
    <!-- stage 5 -->
    <_>
      <maxWeakCount>10</maxWeakCount>
      <stageThreshold>-8.2398104667663574e-01</stageThreshold>
      <weakClassifiers>
        <_>
          <internalNodes>
            0 -1 48 3.7339948117733002e-02</internalNodes>
          <leafValues>
            -3.5493373870849609e-01 7.5077879428863525e-01</leafValues></_>
        <_>
          <internalNodes>
            0 -1 3 1.9028156995773315e-01</internalNodes>
          <leafValues>
            -3.1496271491050720e-01 6.0393786430358887e-01</leafValues></_>
        <_>
          <internalNodes>
            0 -1 28 -7.0253625512123108e-02</internalNodes>
          <leafValues>
            5.6134915351867676e-01 -2.9346072673797607e-01</leafValues></_>
        <_>
          <internalNodes>
            0 -1 6 -1.3876808807253838e-02</internalNodes>
          <leafValues>
            4.8727312684059143e-01 -3.9321723580360413e-01</leafValues></_>
        <_>
          <internalNodes>
            0 -1 63 4.9499515444040298e-03</internalNodes>
          <leafValues>
            -1.7543655633926392e-01 7.5079762935638428e-01</leafValues></_>
        <_>
          <internalNodes>
            0 -1 67 1.0346610099077225e-02</internalNodes>
          <leafValues>
            2.0480297505855560e-01 -7.9453921318054199e-01</leafValues></_>
        <_>
          <internalNodes>
            0 -1 45 3.6885332316160202e-02</internalNodes>
          <leafValues>
            -1.8549953401088715e-01 8.4243142604827881e-01</leafValues></_>
        <_>
          <internalNodes>
            0 -1 51 -8.7019912898540497e-03</internalNodes>
          <leafValues>
            7.3653984069824219e-01 -1.8972209095954895e-01</leafValues></_>
        <_>
          <internalNodes>
            0 -1 40 1.1990457773208618e-02</internalNodes>
          <leafValues>
            -2.2332198917865753e-01 6.1481881141662598e-01</leafValues></_>
        <_>
          <internalNodes>
            0 -1 32 -6.4159575849771500e-03</internalNodes>
          <leafValues>
            -6.4203864336013794e-01 2.6362976431846619e-01</leafValues></_></weakClassifiers></_>
    <!-- stage 6 -->
    <_>
      <maxWeakCount>9</maxWeakCount>
      <stageThreshold>-1.4123483896255493e+00</stageThreshold>
      <weakClassifiers>
        <_>
          <internalNodes>
            0 -1 39 8.0911926925182343e-03</internalNodes>
          <leafValues>
            -6.8648648262023926e-01 4.0317460894584656e-01</leafValues></_>
        <_>
          <internalNodes>
            0 -1 34 1.5603781677782536e-02</internalNodes>
          <leafValues>
            -5.5843120813369751e-01 2.9914629459381104e-01</leafValues></_>
        <_>
          <internalNodes>
            0 -1 15 -1.5652183443307877e-02</internalNodes>
          <leafValues>
            4.0667355060577393e-01 -4.2594647407531738e-01</leafValues></_>
        <_>
          <internalNodes>
            0 -1 20 2.6787873357534409e-02</internalNodes>
          <leafValues>
            -2.6850131154060364e-01 6.0308468341827393e-01</leafValues></_>
        <_>
          <internalNodes>
            0 -1 52 -1.4288431033492088e-02</internalNodes>
          <leafValues>
            6.5042912960052490e-01 -2.5692340731620789e-01</leafValues></_>
        <_>
          <internalNodes>
            0 -1 57 5.8096344582736492e-03</internalNodes>
          <leafValues>
            -2.0278878509998322e-01 6.7716234922409058e-01</leafValues></_>
        <_>
          <internalNodes>
            0 -1 66 2.5383956730365753e-02</internalNodes>
          <leafValues>
            -1.8217982351779938e-01 7.3949968814849854e-01</leafValues></_>
        <_>
          <internalNodes>
            0 -1 9 2.0062934607267380e-02</internalNodes>
          <leafValues>
            -1.8052735924720764e-01 7.3036605119705200e-01</leafValues></_>
        <_>
          <internalNodes>
            0 -1 53 -8.3887286018580198e-04</internalNodes>
          <leafValues>
            -6.1181056499481201e-01 2.4904297292232513e-01</leafValues></_></weakClassifiers></_>
    <!-- stage 7 -->
    <_>
      <maxWeakCount>9</maxWeakCount>
      <stageThreshold>-8.6458724737167358e-01</stageThreshold>
      <weakClassifiers>
        <_>
          <internalNodes>
            0 -1 2 -2.0945478230714798e-02</internalNodes>
          <leafValues>
            -6.7857140302658081e-01 2.6388889551162720e-01</leafValues></_>
        <_>
          <internalNodes>
            0 -1 64 7.1257199160754681e-03</internalNodes>
          <leafValues>
            -3.2138469815254211e-01 5.4767143726348877e-01</leafValues></_>
        <_>
          <internalNodes>
            0 -1 8 1.6043659299612045e-02</internalNodes>
          <leafValues>
            -2.3349656164646149e-01 6.1924117803573608e-01</leafValues></_>
        <_>
          <internalNodes>
            0 -1 55 3.3168611116707325e-03</internalNodes>
          <leafValues>
            -2.2764864563941956e-01 7.5732666254043579e-01</leafValues></_>
        <_>
          <internalNodes>
            0 -1 29 -8.2035601139068604e-02</internalNodes>
          <leafValues>
            -9.1327059268951416e-01 2.1427887678146362e-01</leafValues></_>
        <_>
          <internalNodes>
            0 -1 60 4.9987486563622952e-03</internalNodes>
          <leafValues>
            -3.3171108365058899e-01 5.0818538665771484e-01</leafValues></_>
        <_>
          <internalNodes>
            0 -1 1 4.5935902744531631e-02</internalNodes>
          <leafValues>
            -4.9197363853454590e-01 3.3469426631927490e-01</leafValues></_>
        <_>
          <internalNodes>
            0 -1 12 -7.1772979572415352e-03</internalNodes>
          <leafValues>
            -6.6839087009429932e-01 2.3042988777160645e-01</leafValues></_>
        <_>
          <internalNodes>
            0 -1 26 6.2762796878814697e-02</internalNodes>
          <leafValues>
            1.6535817086696625e-01 -7.8368532657623291e-01</leafValues></_></weakClassifiers></_>
    <!-- stage 8 -->
    <_>
      <maxWeakCount>10</maxWeakCount>
      <stageThreshold>-1.0489526987075806e+00</stageThreshold>
      <weakClassifiers>
        <_>
          <internalNodes>
            0 -1 50 7.8115421347320080e-03</internalNodes>
          <leafValues>
            -2.9004329442977905e-01 6.5472310781478882e-01</leafValues></_>
        <_>
          <internalNodes>
            0 -1 36 2.8210535645484924e-02</internalNodes>
          <leafValues>
            2.5421062111854553e-01 -6.8260180950164795e-01</leafValues></_>
        <_>
          <internalNodes>
            0 -1 16 -7.6109659858047962e-03</internalNodes>
          <leafValues>
            5.5696266889572144e-01 -2.8521305322647095e-01</leafValues></_>
        <_>
          <internalNodes>
            0 -1 37 9.6253361552953720e-03</internalNodes>
          <leafValues>
            -2.6339188218116760e-01 6.6302478313446045e-01</leafValues></_>
        <_>
          <internalNodes>
            0 -1 17 1.2855963408946991e-01</internalNodes>
          <leafValues>
            2.8127604722976685e-01 -6.9355583190917969e-01</leafValues></_>
        <_>
          <internalNodes>
            0 -1 43 1.1168092489242554e-02</internalNodes>
          <leafValues>
            -2.7611592411994934e-01 7.2536551952362061e-01</leafValues></_>
        <_>
          <internalNodes>
            0 -1 19 -2.4570895358920097e-02</internalNodes>
          <leafValues>
            -8.7664592266082764e-01 2.2999125719070435e-01</leafValues></_>
        <_>
          <internalNodes>
            0 -1 58 -1.0550588369369507e-02</internalNodes>
          <leafValues>
            6.6665226221084595e-01 -2.8104147315025330e-01</leafValues></_>
        <_>
          <internalNodes>
            0 -1 31 2.6703208684921265e-02</internalNodes>
          <leafValues>
            -1.9068367779254913e-01 6.8146038055419922e-01</leafValues></_>
        <_>
          <internalNodes>
            0 -1 60 7.1114506572484970e-03</internalNodes>
          <leafValues>
            -1.9787585735321045e-01 6.5870875120162964e-01</leafValues></_></weakClassifiers></_>
    <!-- stage 9 -->
    <_>
      <maxWeakCount>8</maxWeakCount>
      <stageThreshold>-9.7425329685211182e-01</stageThreshold>
      <weakClassifiers>
        <_>
          <internalNodes>
            0 -1 7 -2.2993676364421844e-02</internalNodes>
          <leafValues>
            4.9344977736473083e-01 -4.1697415709495544e-01</leafValues></_>
        <_>
          <internalNodes>
            0 -1 13 -1.2999258004128933e-02</internalNodes>
          <leafValues>
            4.7601088881492615e-01 -3.2945680618286133e-01</leafValues></_>
        <_>
          <internalNodes>
            0 -1 25 1.4976405538618565e-02</internalNodes>
          <leafValues>
            -2.8052559494972229e-01 5.5148833990097046e-01</leafValues></_>
        <_>
          <internalNodes>
            0 -1 59 -4.0590576827526093e-03</internalNodes>
          <leafValues>
            7.8214174509048462e-01 -2.0205354690551758e-01</leafValues></_>
        <_>
          <internalNodes>
            0 -1 65 9.0957954525947571e-03</internalNodes>
          <leafValues>
            -1.6378681361675262e-01 7.0715749263763428e-01</leafValues></_>
        <_>
          <internalNodes>
            0 -1 63 2.7116937562823296e-03</internalNodes>
          <leafValues>
            -2.0228756964206696e-01 6.0577023029327393e-01</leafValues></_>
        <_>
          <internalNodes>
            0 -1 0 7.4800103902816772e-03</internalNodes>
          <leafValues>
            1.5860348939895630e-01 -9.2261278629302979e-01</leafValues></_>
        <_>
          <internalNodes>
            0 -1 10 2.1211806684732437e-02</internalNodes>
          <leafValues>
            -2.7276524901390076e-01 5.7515615224838257e-01</leafValues></_></weakClassifiers></_></stages>
  <features>
    <_>
      <rects>
        <_>
          0 0 3 4 -1.</_>
        <_>
          1 0 1 4 3.</_></rects>
      <tilted>0</tilted></_>
    <_>
      <rects>
        <_>
          0 0 18 15 -1.</_>
        <_>
          0 5 18 5 3.</_></rects>
      <tilted>0</tilted></_>
    <_>
      <rects>
        <_>
          0 0 20 6 -1.</_>
        <_>
          0 3 20 3 2.</_></rects>
      <tilted>0</tilted></_>
    <_>
      <rects>
        <_>
          0 0 20 18 -1.</_>
        <_>
          0 6 20 6 3.</_></rects>
      <tilted>0</tilted></_>
    <_>
      <rects>
        <_>
          0 1 4 12 -1.</_>
        <_>
          0 1 2 6 2.</_>
        <_>
          2 7 2 6 2.</_></rects>
      <tilted>0</tilted></_>
    <_>
      <rects>
        <_>
          0 1 16 18 -1.</_>
        <_>
          8 1 8 18 2.</_></rects>
      <tilted>0</tilted></_>
    <_>
      <rects>
        <_>
          0 2 4 12 -1.</_>
        <_>
          0 2 2 6 2.</_>
        <_>
          2 8 2 6 2.</_></rects>
      <tilted>0</tilted></_>
    <_>
      <rects>
        <_>
          0 3 12 10 -1.</_>
        <_>
          0 3 6 5 2.</_>
        <_>
          6 8 6 5 2.</_></rects>
      <tilted>0</tilted></_>
    <_>
      <rects>
        <_>
          0 7 3 9 -1.</_>
        <_>
          1 7 1 9 3.</_></rects>
      <tilted>0</tilted></_>
    <_>
      <rects>
        <_>
          0 8 3 6 -1.</_>
        <_>
          1 8 1 6 3.</_></rects>
      <tilted>0</tilted></_>
    <_>
      <rects>
        <_>
          0 8 8 6 -1.</_>
        <_>
          0 8 4 3 2.</_>
        <_>
          4 11 4 3 2.</_></rects>
      <tilted>0</tilted></_>
    <_>
      <rects>
        <_>
          0 11 9 4 -1.</_>
        <_>
          3 11 3 4 3.</_></rects>
      <tilted>0</tilted></_>
    <_>
      <rects>
        <_>
          0 12 18 6 -1.</_>
        <_>
          6 12 6 6 3.</_></rects>
      <tilted>0</tilted></_>
    <_>
      <rects>
        <_>
          1 3 4 10 -1.</_>
        <_>
          3 3 2 10 2.</_></rects>
      <tilted>0</tilted></_>
    <_>
      <rects>
        <_>
          1 5 4 8 -1.</_>
        <_>
          3 5 2 8 2.</_></rects>
      <tilted>0</tilted></_>
    <_>
      <rects>
        <_>
          1 6 6 8 -1.</_>
        <_>
          3 6 2 8 3.</_></rects>
      <tilted>0</tilted></_>
    <_>
      <rects>
        <_>
          1 8 2 5 -1.</_>
        <_>
          2 8 1 5 2.</_></rects>
      <tilted>0</tilted></_>
    <_>
      <rects>
        <_>
          2 3 15 17 -1.</_>
        <_>
          7 3 5 17 3.</_></rects>
      <tilted>0</tilted></_>
    <_>
      <rects>
        <_>
          2 5 16 10 -1.</_>
        <_>
          2 10 16 5 2.</_></rects>
      <tilted>0</tilted></_>
    <_>
      <rects>
        <_>
          2 6 10 9 -1.</_>
        <_>
          7 6 5 9 2.</_></rects>
      <tilted>0</tilted></_>
    <_>
      <rects>
        <_>
          2 11 10 4 -1.</_>
        <_>
          2 11 5 2 2.</_>
        <_>
          7 13 5 2 2.</_></rects>
      <tilted>0</tilted></_>
    <_>
      <rects>
        <_>
          2 11 12 4 -1.</_>
        <_>
          2 11 6 2 2.</_>
        <_>
          8 13 6 2 2.</_></rects>
      <tilted>0</tilted></_>
    <_>
      <rects>
        <_>
          3 12 12 5 -1.</_>
        <_>
          7 12 4 5 3.</_></rects>
      <tilted>0</tilted></_>
    <_>
      <rects>
        <_>
          4 6 10 2 -1.</_>
        <_>
          4 7 10 1 2.</_></rects>
      <tilted>0</tilted></_>
    <_>
      <rects>
        <_>
          5 3 9 9 -1.</_>
        <_>
          5 6 9 3 3.</_></rects>
      <tilted>0</tilted></_>
    <_>
      <rects>
        <_>
          5 11 6 4 -1.</_>
        <_>
          5 11 3 2 2.</_>
        <_>
          8 13 3 2 2.</_></rects>
      <tilted>0</tilted></_>
    <_>
      <rects>
        <_>
          6 3 12 14 -1.</_>
        <_>
          10 3 4 14 3.</_></rects>
      <tilted>0</tilted></_>
    <_>
      <rects>
        <_>
          6 5 5 6 -1.</_>
        <_>
          6 8 5 3 2.</_></rects>
      <tilted>0</tilted></_>
    <_>
      <rects>
        <_>
          6 6 7 9 -1.</_>
        <_>
          6 9 7 3 3.</_></rects>
      <tilted>0</tilted></_>
    <_>
      <rects>
        <_>
          6 7 13 12 -1.</_>
        <_>
          6 11 13 4 3.</_></rects>
      <tilted>0</tilted></_>
    <_>
      <rects>
        <_>
          6 9 7 9 -1.</_>
        <_>
          6 12 7 3 3.</_></rects>
      <tilted>0</tilted></_>
    <_>
      <rects>
        <_>
          6 10 2 6 -1.</_>
        <_>
          6 12 2 2 3.</_></rects>
      <tilted>0</tilted></_>
    <_>
      <rects>
        <_>
          6 18 6 2 -1.</_>
        <_>
          8 18 2 2 3.</_></rects>
      <tilted>0</tilted></_>
    <_>
      <rects>
        <_>
          7 0 12 18 -1.</_>
        <_>
          7 9 12 9 2.</_></rects>
      <tilted>0</tilted></_>
    <_>
      <rects>
        <_>
          7 2 6 6 -1.</_>
        <_>
          7 5 6 3 2.</_></rects>
      <tilted>0</tilted></_>
    <_>
      <rects>
        <_>
          7 3 7 9 -1.</_>
        <_>
          7 6 7 3 3.</_></rects>
      <tilted>0</tilted></_>
    <_>
      <rects>
        <_>
          7 5 6 12 -1.</_>
        <_>
          7 11 6 6 2.</_></rects>
      <tilted>0</tilted></_>
    <_>
      <rects>
        <_>
          7 6 8 2 -1.</_>
        <_>
          7 6 4 1 2.</_>
        <_>
          11 7 4 1 2.</_></rects>
      <tilted>0</tilted></_>
    <_>
      <rects>
        <_>
          7 6 4 9 -1.</_>
        <_>
          7 9 4 3 3.</_></rects>
      <tilted>0</tilted></_>
    <_>
      <rects>
        <_>
          7 9 4 6 -1.</_>
        <_>
          7 12 4 3 2.</_></rects>
      <tilted>0</tilted></_>
    <_>
      <rects>
        <_>
          7 10 1 6 -1.</_>
        <_>
          7 12 1 2 3.</_></rects>
      <tilted>0</tilted></_>
    <_>
      <rects>
        <_>
          7 10 12 4 -1.</_>
        <_>
          7 10 6 2 2.</_>
        <_>
          13 12 6 2 2.</_></rects>
      <tilted>0</tilted></_>
    <_>
      <rects>
        <_>
          7 11 4 8 -1.</_>
        <_>
          7 15 4 4 2.</_></rects>
      <tilted>0</tilted></_>
    <_>
      <rects>
        <_>
          7 12 6 2 -1.</_>
        <_>
          7 12 3 1 2.</_>
        <_>
          10 13 3 1 2.</_></rects>
      <tilted>0</tilted></_>
    <_>
      <rects>
        <_>
          8 2 4 6 -1.</_>
        <_>
          8 5 4 3 2.</_></rects>
      <tilted>0</tilted></_>
    <_>
      <rects>
        <_>
          8 3 3 6 -1.</_>
        <_>
          8 5 3 2 3.</_></rects>
      <tilted>0</tilted></_>
    <_>
      <rects>
        <_>
          8 9 2 9 -1.</_>
        <_>
          8 12 2 3 3.</_></rects>
      <tilted>0</tilted></_>
    <_>
      <rects>
        <_>
          8 10 12 6 -1.</_>
        <_>
          8 10 6 3 2.</_>
        <_>
          14 13 6 3 2.</_></rects>
      <tilted>0</tilted></_>
    <_>
      <rects>
        <_>
          8 11 3 6 -1.</_>
        <_>
          8 13 3 2 3.</_></rects>
      <tilted>0</tilted></_>
    <_>
      <rects>
        <_>
          8 11 6 4 -1.</_>
        <_>
          8 13 6 2 2.</_></rects>
      <tilted>0</tilted></_>
    <_>
      <rects>
        <_>
          8 12 2 2 -1.</_>
        <_>
          8 13 2 1 2.</_></rects>
      <tilted>0</tilted></_>
    <_>
      <rects>
        <_>
          8 12 2 3 -1.</_>
        <_>
          8 13 2 1 3.</_></rects>
      <tilted>0</tilted></_>
    <_>
      <rects>
        <_>
          8 12 3 4 -1.</_>
        <_>
          8 14 3 2 2.</_></rects>
      <tilted>0</tilted></_>
    <_>
      <rects>
        <_>
          8 19 2 1 -1.</_>
        <_>
          9 19 1 1 2.</_></rects>
      <tilted>0</tilted></_>
    <_>
      <rects>
        <_>
          9 2 2 9 -1.</_>
        <_>
          9 5 2 3 3.</_></rects>
      <tilted>0</tilted></_>
    <_>
      <rects>
        <_>
          9 8 2 2 -1.</_>
        <_>
          9 8 1 1 2.</_>
        <_>
          10 9 1 1 2.</_></rects>
      <tilted>0</tilted></_>
    <_>
      <rects>
        <_>
          9 12 2 3 -1.</_>
        <_>
          9 13 2 1 3.</_></rects>
      <tilted>0</tilted></_>
    <_>
      <rects>
        <_>
          9 13 2 2 -1.</_>
        <_>
          9 14 2 1 2.</_></rects>
      <tilted>0</tilted></_>
    <_>
      <rects>
        <_>
          11 6 3 3 -1.</_>
        <_>
          11 7 3 1 3.</_></rects>
      <tilted>0</tilted></_>
    <_>
      <rects>
        <_>
          13 7 2 2 -1.</_>
        <_>
          13 7 1 1 2.</_>
        <_>
          14 8 1 1 2.</_></rects>
      <tilted>0</tilted></_>
    <_>
      <rects>
        <_>
          13 7 2 6 -1.</_>
        <_>
          13 7 1 3 2.</_>
        <_>
          14 10 1 3 2.</_></rects>
      <tilted>0</tilted></_>
    <_>
      <rects>
        <_>
          13 8 4 2 -1.</_>
        <_>
          13 8 2 1 2.</_>
        <_>
          15 9 2 1 2.</_></rects>
      <tilted>0</tilted></_>
    <_>
      <rects>
        <_>
          14 8 1 3 -1.</_>
        <_>
          14 9 1 1 3.</_></rects>
      <tilted>0</tilted></_>
    <_>
      <rects>
        <_>
          14 8 2 2 -1.</_>
        <_>
          14 8 1 1 2.</_>
        <_>
          15 9 1 1 2.</_></rects>
      <tilted>0</tilted></_>
    <_>
      <rects>
        <_>
          17 6 2 7 -1.</_>
        <_>
          18 6 1 7 2.</_></rects>
      <tilted>0</tilted></_>
    <_>
      <rects>
        <_>
          18 3 2 10 -1.</_>
        <_>
          18 3 1 5 2.</_>
        <_>
          19 8 1 5 2.</_></rects>
      <tilted>0</tilted></_>
    <_>
      <rects>
        <_>
          19 3 1 15 -1.</_>
        <_>
          19 8 1 5 3.</_></rects>
      <tilted>0</tilted></_>
    <_>
      <rects>
        <_>
          19 6 1 14 -1.</_>
        <_>
          19 13 1 7 2.</_></rects>
      <tilted>0</tilted></_></features></cascade>
</opencv_storage>
